digraph Tree {
node [shape=box, style="filled, rounded", color="black", fontname=helvetica] ;
edge [fontname=helvetica] ;
0 [label="escolari-max <= 0.6\ngini = 0.54\nsamples = 1862\nvalue = [248, 440, 370, 1915]\nclass = non-vulnerable", fillcolor="#d739e594"] ;
1 [label="escolari/age-min <= 0.12\ngini = 0.65\nsamples = 1286\nvalue = [233, 417, 335, 1072]\nclass = non-vulnerable", fillcolor="#d739e566"] ;
0 -> 1 [labeldistance=2.5, labelangle=45, headlabel="True"] ;
2 [label="dependency <= 0.18\ngini = 0.72\nsamples = 677\nvalue = [171, 285, 218, 415]\nclass = non-vulnerable", fillcolor="#d739e529"] ;
1 -> 2 ;
3 [label="gini = 0.68\nsamples = 424\nvalue = [93, 139, 124, 312]\nclass = non-vulnerable", fillcolor="#d739e553"] ;
2 -> 3 ;
4 [label="gini = 0.74\nsamples = 253\nvalue = [78, 146, 94, 103]\nclass = moderate", fillcolor="#47e53922"] ;
2 -> 4 ;
5 [label="r4t1 <= 0.07\ngini = 0.5\nsamples = 609\nvalue = [62, 132, 117, 657]\nclass = non-vulnerable", fillcolor="#d739e5a0"] ;
1 -> 5 ;
6 [label="gini = 0.44\nsamples = 492\nvalue = [36, 97, 81, 571]\nclass = non-vulnerable", fillcolor="#d739e5b0"] ;
5 -> 6 ;
7 [label="gini = 0.68\nsamples = 117\nvalue = [26, 35, 36, 86]\nclass = non-vulnerable", fillcolor="#d739e557"] ;
5 -> 7 ;
8 [label="escolari/age-range_ <= 0.87\ngini = 0.15\nsamples = 576\nvalue = [15, 23, 35, 843]\nclass = non-vulnerable", fillcolor="#d739e5ea"] ;
0 -> 8 [labeldistance=2.5, labelangle=-45, headlabel="False"] ;
9 [label="walls+roof+floor <= 0.58\ngini = 0.14\nsamples = 560\nvalue = [10, 23, 33, 829]\nclass = non-vulnerable", fillcolor="#d739e5eb"] ;
8 -> 9 ;
10 [label="gini = 0.39\nsamples = 67\nvalue = [1, 12, 12, 82]\nclass = non-vulnerable", fillcolor="#d739e5bc"] ;
9 -> 10 ;
11 [label="gini = 0.1\nsamples = 493\nvalue = [9, 11, 21, 747]\nclass = non-vulnerable", fillcolor="#d739e5f1"] ;
9 -> 11 ;
12 [label="cielorazo <= 0.5\ngini = 0.49\nsamples = 16\nvalue = [5, 0, 2, 14]\nclass = non-vulnerable", fillcolor="#d739e58f"] ;
8 -> 12 ;
13 [label="gini = 0.41\nsamples = 5\nvalue = [5, 0, 0, 2]\nclass = extreme", fillcolor="#e5813999"] ;
12 -> 13 ;
14 [label="gini = 0.24\nsamples = 11\nvalue = [0, 0, 2, 12]\nclass = non-vulnerable", fillcolor="#d739e5d4"] ;
12 -> 14 ;
}